/*!
 * The following copyright notice may not be removed under any circumstances.
 * 
 * Copyright:
 * (c) 1999 Nick Curtis. All Rights Reserved. Generated by Fontographer 3.52
 */
Cufon.registerFont({"w":375,"face":{"font-family":"SouciSans","font-weight":400,"font-stretch":"normal","units-per-em":"1000","panose-1":"0 0 0 0 0 0 0 0 0 0","ascent":"800","descent":"-200","cap-height":"1","bbox":"-153.534 -811.585 868 249","underline-thickness":"50","underline-position":"-55","unicode-range":"U+0020-U+203A"},"glyphs":{" ":{"w":316},"\u00a0":{"w":316},"!":{"d":"84,-134v40,0,68,27,68,68v0,41,-27,67,-68,67v-40,0,-68,-26,-68,-67v0,-41,28,-68,68,-68xm85,-703v11,0,21,10,20,23r0,504v1,13,-9,22,-20,22v-12,0,-22,-9,-21,-22r0,-504v-1,-13,9,-23,21,-23","w":165},"\"":{"d":"87,-724v36,0,69,32,68,67v-1,71,-24,108,-82,127v-21,1,-28,-33,-7,-40v9,-6,20,-11,27,-18v-45,4,-72,-30,-72,-68v0,-37,25,-68,66,-68xm227,-724v36,0,69,32,68,67v-1,71,-24,108,-82,127v-21,1,-28,-33,-7,-40v9,-6,20,-11,27,-18v-45,4,-72,-30,-72,-68v0,-37,25,-68,66,-68","w":294},"$":{"d":"273,-287v-1,65,-54,101,-109,113r0,154v1,13,-9,22,-20,22v-12,0,-22,-9,-21,-22r0,-152v-46,-6,-89,-28,-109,-62v-11,-20,22,-37,37,-19v16,19,42,35,72,39r0,-144v-52,-11,-97,-36,-97,-99v0,-61,40,-96,97,-105r0,-120v-1,-13,9,-23,21,-23v11,0,21,10,20,23r0,120v39,4,70,16,90,40v14,17,-13,42,-32,25v-15,-14,-33,-21,-58,-24r0,129v49,11,110,45,109,105xm164,-217v33,-8,67,-30,67,-71v-1,-36,-38,-53,-67,-62r0,133xm123,-520v-32,5,-66,41,-53,81v7,22,30,33,53,39r0,-120","w":286},"&":{"d":"418,-351v66,14,115,71,115,149v1,69,-25,119,-74,153v-76,52,-180,70,-282,40v-80,-23,-152,-85,-152,-187v0,-100,88,-170,166,-193v-25,-20,-44,-52,-45,-94v-2,-77,58,-124,128,-122v64,2,120,48,120,122v0,13,-9,22,-21,22v-12,0,-22,-9,-21,-22v2,-50,-38,-81,-82,-81v-43,0,-82,31,-82,81v0,47,41,83,87,82v11,0,16,10,15,21v0,10,-4,21,-15,21v-71,3,-112,24,-159,59v-67,50,-61,165,4,214v82,62,230,66,315,2v37,-28,57,-66,57,-118v0,-70,-41,-111,-110,-111v-47,0,-86,33,-86,84v0,39,30,64,66,64v28,0,51,-18,50,-48v-1,-12,-7,-23,-18,-25v-13,1,-22,-9,-22,-21v0,-12,9,-22,22,-21v33,1,60,32,60,67v0,54,-44,89,-93,89v-90,2,-131,-96,-89,-170v25,-43,75,-59,115,-86v29,-19,64,-31,87,-56v26,-28,-4,-82,-41,-80v-13,1,-22,-9,-22,-21v0,-11,10,-20,23,-20v55,0,105,57,88,117v-13,48,-65,65,-104,89","w":559},"'":{"d":"87,-726v36,0,69,32,68,67v-1,71,-24,108,-82,127v-21,1,-28,-33,-7,-40v9,-6,20,-11,27,-18v-45,4,-72,-30,-72,-68v0,-37,25,-68,66,-68","w":168},"(":{"d":"214,26v14,0,21,5,21,22v0,16,-8,20,-21,20v-77,-5,-118,-64,-149,-129v-71,-149,-72,-443,0,-592v19,-41,41,-72,66,-95v27,-23,53,-35,86,-34v11,1,18,5,18,21v0,17,-7,19,-21,20v-57,4,-87,54,-111,105v-79,173,-66,526,51,634v19,18,39,28,60,28","w":246},")":{"d":"11,-761v0,-17,7,-21,21,-21v77,5,118,64,149,129v71,149,72,443,0,592v-19,41,-41,72,-66,95v-27,23,-53,35,-86,34v-11,-1,-18,-5,-18,-21v0,-17,7,-21,21,-21v57,0,88,-54,111,-104v79,-173,64,-526,-51,-636v-20,-19,-38,-28,-63,-27v-11,-1,-18,-4,-18,-20","w":246},"*":{"d":"201,-630v2,38,-57,47,-67,15v-8,-13,-13,-20,-26,-31v6,27,31,31,33,60v1,18,-17,35,-36,35v-31,0,-49,-42,-24,-61v9,-10,16,-18,21,-32v-29,11,-19,50,-58,50v-21,-1,-35,-15,-35,-37v0,-19,14,-35,36,-34v22,1,28,17,55,14v-23,-20,-69,-4,-69,-50v0,-21,14,-37,41,-34v25,4,37,28,28,57r4,23v6,-17,2,-35,2,-55v5,-14,17,-27,35,-26v22,1,36,15,36,36v-2,38,-44,32,-68,48v28,3,36,-11,56,-15v21,2,35,17,36,37","w":212},",":{"d":"87,-136v36,0,69,32,68,67v-1,70,-23,104,-77,125v-24,9,-35,-31,-12,-39v9,-6,20,-9,27,-17v-45,4,-72,-30,-72,-68v0,-37,25,-68,66,-68","w":168},"-":{"d":"14,-321v0,-12,9,-22,22,-21r111,0v13,-1,23,9,23,21v0,12,-10,22,-23,21r-111,0v-13,1,-22,-9,-22,-21","w":185},".":{"d":"100,-136v40,0,68,27,68,68v0,41,-28,68,-68,68v-40,0,-68,-27,-68,-68v0,-41,28,-68,68,-68","w":191},"0":{"d":"485,-534v53,72,77,142,77,238v0,80,-28,148,-78,213v-46,61,-109,91,-190,91v-81,0,-145,-30,-190,-91v-55,-75,-82,-144,-76,-252v4,-73,30,-139,76,-200v46,-61,109,-91,190,-91v81,0,145,30,191,92xm450,-106v49,-69,78,-133,68,-239v-6,-60,-31,-114,-67,-165v-70,-99,-245,-99,-314,0v-49,70,-77,136,-67,241v6,59,32,112,68,163v70,97,242,98,312,0","w":588},"1":{"d":"107,-603v12,-11,35,-1,34,16r0,564v1,13,-9,22,-21,22v-12,0,-22,-9,-21,-22r0,-519v-18,15,-34,33,-55,44v-20,11,-38,-20,-19,-36","w":191},"2":{"d":"220,-611v112,-2,216,93,213,207v-2,82,-31,150,-80,192r-194,170r211,0v13,-1,23,9,23,21v0,12,-10,22,-23,21r-266,0v-17,1,-26,-24,-13,-36r234,-207v42,-35,64,-92,66,-161v2,-92,-81,-167,-171,-166v-89,1,-158,46,-158,139v0,56,46,111,104,110v53,-1,105,-28,103,-84v-1,-13,9,-23,21,-23v12,0,21,10,21,23v0,78,-67,126,-139,126v-95,0,-156,-65,-151,-165v5,-108,82,-165,199,-167","w":454},"3":{"d":"394,-360v54,48,81,149,48,236v-36,96,-161,164,-286,117v-76,-28,-132,-97,-134,-199v-1,-13,9,-22,21,-22v11,0,21,9,20,22v-3,96,81,177,176,174v106,-4,176,-69,176,-175v0,-50,-19,-91,-46,-119v-28,27,-69,52,-121,52v-51,0,-95,-25,-95,-74v0,-48,45,-73,98,-73v44,0,82,16,110,34v11,-19,17,-43,15,-72v-5,-91,-94,-150,-190,-115v-18,6,-32,18,-46,28v-22,8,-37,-21,-20,-36v32,-28,74,-49,131,-44v100,8,169,75,166,187v-1,31,-11,57,-23,79xm194,-348v7,37,68,38,102,22v16,-7,30,-16,41,-27v-23,-16,-55,-26,-92,-26v-23,0,-47,10,-51,31","w":478},"4":{"d":"456,-174v0,31,-50,19,-81,21r0,130v1,13,-9,22,-21,22v-12,0,-22,-9,-21,-22r0,-130r-291,0v-15,1,-27,-19,-17,-33r312,-436v9,-15,39,-7,38,12r0,415v31,2,81,-11,81,21xm333,-195r0,-350r-250,350r250,0","w":477},"5":{"d":"221,-421v139,-10,234,89,236,215v2,119,-99,214,-218,214v-118,0,-220,-96,-217,-214v-1,-13,9,-22,21,-22v12,0,22,9,21,22v-3,96,80,174,175,174v97,0,176,-77,176,-174v0,-95,-74,-173,-170,-173r-124,0v-12,0,-24,-13,-19,-27r67,-206v3,-7,10,-13,19,-14r204,0v13,-1,22,9,22,20v0,12,-9,22,-22,21r-189,0r-53,164r71,0","w":482},"6":{"d":"177,-458v81,-29,171,-15,233,38v53,45,87,98,87,184v0,155,-147,278,-317,222v-108,-35,-188,-163,-142,-302v15,-44,45,-80,70,-116r123,-176v10,-19,47,-7,38,17xm204,-50v117,33,216,-35,242,-130v32,-114,-30,-211,-119,-240v-117,-38,-227,29,-253,126v-32,118,35,217,130,244","w":536},"7":{"d":"443,-617v15,-1,26,20,17,33r-399,573v-10,20,-47,7,-38,-17r380,-547r-357,0v-13,1,-22,-9,-22,-21v0,-12,9,-22,22,-21r397,0","w":453},"8":{"d":"262,-617v94,3,141,85,112,173v72,37,122,111,122,206v0,131,-92,238,-238,238v-128,0,-238,-116,-234,-239v3,-103,56,-165,123,-205v-38,-84,34,-176,115,-173xm170,-409v-84,37,-136,164,-82,264v30,56,89,103,173,103v113,0,194,-75,194,-194v0,-80,-45,-144,-104,-173v-21,23,-50,38,-91,39v-38,-1,-69,-17,-90,-39xm214,-426v21,19,71,19,93,0v-27,-7,-65,-6,-93,0xm185,-461v43,-16,109,-16,151,0v24,-56,-19,-119,-82,-114v-54,4,-88,59,-69,114","w":520},"9":{"d":"344,-161v-161,51,-322,-51,-320,-222v2,-152,139,-272,307,-225v112,32,194,153,155,296v-7,23,-17,44,-31,65r-165,236v-10,21,-46,7,-38,-16xm204,-196v116,33,216,-33,243,-128v33,-117,-34,-217,-129,-244v-117,-33,-217,34,-244,129v-33,118,35,216,130,243","w":536},":":{"d":"100,-136v40,0,68,27,68,68v0,41,-28,68,-68,68v-40,0,-68,-27,-68,-68v0,-41,28,-68,68,-68xm100,-316v40,0,68,27,68,68v0,41,-28,68,-68,68v-40,0,-68,-27,-68,-68v0,-41,28,-68,68,-68","w":191},";":{"d":"92,-136v36,0,69,32,68,67v-1,70,-23,104,-77,125v-24,9,-35,-31,-12,-39v9,-6,19,-10,27,-17v-45,4,-72,-30,-72,-68v0,-37,25,-68,66,-68xm100,-316v40,0,68,27,68,68v0,41,-28,68,-68,68v-40,0,-68,-27,-68,-68v0,-41,28,-68,68,-68","w":191},"<":{"d":"537,-568v20,-9,40,14,27,32v-3,4,-7,6,-12,8r-450,165r450,164v10,4,18,11,16,23v-2,12,-14,25,-31,19r-506,-186v-17,-5,-16,-35,0,-41","w":589},">":{"d":"47,-157v-28,10,-44,-32,-15,-42r450,-164r-450,-165v-23,-5,-19,-43,6,-42r9,2r506,184v17,4,16,35,0,41","w":589},"?":{"d":"167,-136v41,0,68,27,68,68v0,41,-28,68,-68,68v-40,0,-68,-27,-68,-68v0,-41,28,-68,68,-68xm60,-545v-8,24,-46,16,-40,-9v28,-106,165,-186,289,-128v71,33,126,127,90,223v-16,43,-50,76,-87,101v-46,32,-95,63,-122,114v-10,22,-8,51,-3,75v0,13,-10,22,-24,20v-21,-4,-23,-32,-23,-55v0,-109,93,-149,162,-197v53,-37,91,-123,48,-193v-24,-38,-68,-68,-131,-68v-77,0,-139,54,-159,117","w":431},"@":{"d":"389,-703v190,0,359,166,354,355v-3,99,-38,176,-131,176v-40,0,-71,-22,-88,-51v-25,33,-72,58,-126,58v-81,0,-143,-48,-143,-128v0,-68,50,-119,124,-119v51,0,93,27,110,64v10,22,-25,36,-37,16v-15,-23,-41,-38,-75,-38v-43,0,-80,31,-80,78v0,54,52,85,104,85v55,0,108,-31,108,-83r0,-112v4,-73,-64,-114,-130,-114v-65,0,-132,42,-128,114v1,13,-9,22,-20,22v-12,0,-21,-9,-21,-22v0,-118,126,-185,239,-144v55,20,101,68,101,144r0,115v-1,39,27,77,63,74v66,-5,86,-65,88,-135v5,-166,-146,-313,-312,-313v-167,0,-312,145,-312,311v0,207,216,378,431,288v38,-16,73,-38,101,-67v15,-15,45,-2,35,21v-56,64,-146,109,-255,111v-189,5,-354,-164,-354,-353v0,-189,165,-353,354,-353","w":778},"A":{"d":"59,-7v-7,23,-51,11,-41,-13r283,-647v6,-16,26,-30,43,-16v5,4,9,10,12,17r248,648v4,19,-17,30,-33,21v-3,-2,-6,-6,-8,-11r-102,-257r-286,0xm446,-307r-118,-317r-136,317r254,0","w":629},"B":{"d":"246,-466v-10,8,-16,27,-3,36v5,4,11,7,20,8v115,13,192,92,192,217v0,125,-103,227,-240,218v-45,-3,-84,-10,-119,-25v-21,-9,-12,-47,13,-40v34,18,76,24,127,24v96,0,178,-82,177,-177v-1,-103,-59,-166,-155,-175v-46,-4,-81,-54,-55,-98v10,-17,31,-30,37,-51v5,-15,9,-27,9,-45v2,-49,-47,-92,-95,-91v-46,1,-89,16,-89,67r0,576v1,13,-9,22,-21,22v-12,0,-22,-9,-21,-22r-1,-576v-4,-75,63,-108,132,-109v91,-1,168,94,126,191v-7,19,-18,36,-34,50","w":476},"C":{"d":"678,-178v13,-19,46,-6,38,17v-59,94,-172,169,-312,169v-188,0,-302,-95,-354,-234v-18,-49,-26,-102,-26,-160v0,-182,165,-338,344,-335v150,2,253,59,298,165v15,35,23,75,23,118v0,123,-109,239,-233,236v-122,-2,-239,-75,-223,-211v7,-55,60,-120,123,-120v13,0,23,9,23,20v0,12,-10,21,-23,21v-47,0,-81,47,-83,96v-5,101,90,151,183,153v102,2,194,-93,191,-195v-4,-166,-110,-238,-279,-241v-158,-3,-307,132,-303,293v4,168,75,279,198,328v91,36,212,34,296,-14v47,-27,89,-60,119,-106","w":733},"D":{"d":"295,-706v192,0,360,163,360,356v0,227,-223,419,-470,341v-36,-11,-68,-29,-99,-49v-18,-12,-6,-46,17,-38v51,35,113,62,192,64v170,3,318,-148,318,-318v0,-171,-148,-314,-318,-314v-75,0,-143,7,-193,36v-28,16,-43,40,-43,75r0,528v1,13,-9,22,-20,22v-12,0,-22,-9,-21,-22r0,-528v0,-50,18,-86,54,-107v60,-36,132,-46,223,-46","w":675},"E":{"d":"366,-21v0,12,-9,22,-22,21r-268,0v-31,1,-60,-27,-59,-58r0,-587v-1,-31,28,-59,59,-58r179,0v13,-1,23,9,23,21v0,12,-10,22,-23,21r-179,0v-9,0,-17,7,-17,16r0,328r236,0v13,-1,23,9,23,21v0,12,-10,22,-23,21r-236,0r0,217v0,9,8,16,17,16r268,0v13,-1,22,9,22,21","w":383},"F":{"d":"317,-682v0,12,-9,22,-22,21r-222,0v-9,0,-16,7,-16,16r0,328r185,0v13,-1,22,10,22,22v0,11,-9,21,-22,20r-185,0r0,254v1,13,-9,22,-21,22v-12,0,-22,-9,-21,-22r0,-624v-1,-31,27,-59,58,-58r222,0v13,-1,22,9,22,21","w":332},"G":{"d":"657,-449v31,-1,59,28,58,59r0,269v0,6,-4,12,-7,16v-71,64,-168,109,-293,105v-169,-5,-289,-93,-349,-214v-42,-84,-42,-191,0,-275v63,-123,184,-214,363,-214v117,0,210,45,279,105v16,14,2,46,-20,36v-84,-83,-249,-131,-393,-76v-116,43,-219,135,-219,286v0,150,101,242,214,286v134,53,300,14,383,-64r0,-260v0,-9,-7,-17,-16,-17r-221,0v-13,1,-22,-9,-22,-21v0,-12,9,-22,22,-21r221,0","w":750},"H":{"d":"483,-705v12,0,22,10,21,23r0,661v1,13,-9,22,-21,22v-12,0,-22,-9,-21,-22r0,-387r-396,0r0,387v1,13,-9,22,-21,22v-12,0,-22,-9,-21,-22r0,-661v-1,-13,9,-23,21,-23v12,0,22,10,21,23r0,233r396,0r0,-233v-1,-13,9,-23,21,-23","w":528},"I":{"d":"37,-705v12,0,22,10,21,23r0,661v1,13,-9,22,-21,22v-12,0,-22,-9,-21,-22r0,-661v-1,-13,9,-23,21,-23","w":82},"J":{"d":"134,-32v-3,70,-45,135,-107,147v-22,4,-28,-34,-7,-41v40,-13,71,-56,72,-106r0,-650v-1,-13,9,-23,21,-23v12,0,22,10,21,23r0,650","w":151},"K":{"d":"494,-44v23,-5,47,-3,44,22v-2,18,-23,20,-43,20v-32,0,-57,-14,-74,-32r-200,-212v-9,-10,-17,-23,-21,-37r-133,164r0,98v1,13,-9,22,-20,22v-12,0,-22,-9,-21,-22r0,-661v-1,-13,9,-23,21,-23v11,0,21,10,20,23r0,498r411,-511v11,-19,46,-4,36,19v-1,2,-2,4,-4,7r-274,341v-1,24,4,41,16,53r199,212v9,12,24,19,43,19","w":564},"L":{"d":"317,-21v0,12,-9,22,-22,21r-222,0v-31,1,-59,-27,-58,-58r0,-624v-1,-13,9,-23,21,-23v12,0,22,10,21,23r0,624v0,9,7,16,16,16r222,0v13,-1,22,9,22,21","w":332},"M":{"d":"30,-677v-3,-28,41,-38,52,-15r6,7r240,588r239,-588v6,-27,58,-26,58,8r0,657v1,13,-9,22,-21,22v-12,0,-22,-9,-21,-22r0,-594r-228,560v-4,16,-29,28,-44,14v-5,-4,-8,-9,-10,-14r-230,-561r0,595v1,13,-9,22,-20,22v-12,0,-22,-9,-21,-22r0,-657","w":654},"N":{"d":"410,-705v12,0,22,10,21,23r0,652v2,33,-46,35,-59,9r-310,-603r0,612v1,13,-9,22,-20,22v-12,0,-22,-9,-21,-22r0,-661v-2,-30,41,-40,55,-14r313,610r0,-605v-1,-13,9,-23,21,-23","w":462},"O":{"d":"574,-679v133,52,234,161,234,338v0,160,-109,266,-234,313v-93,36,-202,38,-297,2v-133,-50,-243,-160,-238,-339v5,-161,108,-265,235,-314v93,-36,207,-36,300,0xm766,-353v0,-95,-35,-170,-104,-227v-135,-112,-341,-111,-477,0v-69,57,-105,132,-105,227v0,95,36,170,105,227v136,112,340,112,476,0v69,-57,105,-132,105,-227","w":826},"P":{"d":"144,-703v120,-10,208,81,209,189v2,117,-121,222,-250,178v-21,-7,-18,-44,5,-41v18,2,34,10,56,10v76,0,150,-68,148,-147v-2,-86,-71,-156,-168,-147v-50,-6,-86,22,-86,64r0,576v1,13,-9,22,-20,22v-12,0,-22,-9,-21,-22r0,-576v1,-63,54,-115,127,-106","w":370},"Q":{"d":"678,-95v65,31,120,79,141,154v1,23,-34,27,-41,5v-19,-64,-77,-107,-139,-129v-89,65,-249,88,-375,41v-133,-50,-244,-161,-238,-340v5,-161,107,-266,234,-315v93,-36,208,-36,301,0v131,51,234,157,234,327v0,111,-49,200,-117,257xm333,-48v89,20,187,0,249,-32v-83,-16,-170,4,-232,28v-6,2,-11,3,-17,4xm633,-112v71,-54,125,-138,120,-253v-6,-140,-97,-233,-207,-275v-84,-32,-181,-33,-267,-1v-116,43,-212,136,-212,288v0,109,58,195,130,247v52,38,140,15,192,-4v67,-25,174,-24,244,-2","w":817},"R":{"d":"100,-381v24,2,41,14,69,14v75,0,150,-69,147,-147v-3,-94,-76,-147,-188,-147v-35,0,-66,30,-65,64r0,576v1,13,-9,22,-20,22v-12,0,-22,-9,-21,-22r0,-576v2,-68,55,-106,137,-106v111,0,199,85,199,189v0,98,-87,190,-184,189r187,255v14,19,36,31,70,29v12,-1,21,10,21,21v0,16,-14,21,-33,20v-40,-2,-73,-19,-91,-45r-193,-264v-9,-14,-22,-27,-39,-31v-22,-5,-20,-43,4,-41","w":474},"S":{"d":"332,-661v18,14,3,47,-20,37v-34,-29,-95,-50,-152,-28v-52,19,-100,72,-80,144v23,81,120,98,197,125v71,25,142,92,142,183v0,149,-189,256,-321,168v-32,-21,-62,-40,-77,-72v-10,-21,24,-36,37,-18v30,40,79,78,145,80v87,1,177,-68,174,-158v-2,-78,-65,-126,-129,-149r-64,-23v-76,-26,-150,-69,-150,-165v0,-104,75,-166,179,-166v49,0,89,19,119,42","w":439},"T":{"d":"449,-682v0,12,-10,22,-23,21r-164,0r0,641v0,13,-9,21,-21,21v-12,0,-22,-9,-21,-22r0,-640r-176,0v-13,1,-22,-9,-22,-21v0,-12,9,-22,22,-21r382,0v13,-1,23,9,23,21","w":470},"U":{"d":"432,-703v12,0,22,8,21,21r0,617v-2,25,28,23,27,46v0,10,-9,21,-20,19v-36,-7,-52,-42,-49,-88v-39,53,-100,93,-186,88v-91,-5,-154,-61,-185,-132v-11,-26,-17,-54,-17,-83r0,-467v-1,-13,9,-23,21,-23v11,0,21,10,20,23r0,467v-3,92,82,173,174,173v92,0,173,-80,173,-172r0,-468v-1,-13,9,-21,21,-21","w":489},"V":{"d":"521,-693v6,-24,50,-16,41,9r-248,679v-5,15,-34,15,-39,0r-249,-679v-6,-26,32,-33,41,-9r227,621","w":589},"W":{"d":"818,-704v17,-11,38,3,31,24r-209,674v-3,16,-35,16,-39,0r-175,-605r-174,605v-3,16,-35,16,-40,0r-209,-678v-4,-26,32,-32,40,-8r188,608r175,-608v3,-17,35,-17,40,0r175,608r188,-608v2,-5,5,-9,9,-12","w":862},"X":{"d":"559,-24v2,16,-9,25,-26,24v-43,0,-80,-25,-97,-55r-166,-280r-195,325v-8,20,-49,7,-39,-15r3,-6r103,-173r104,-171r-149,-252v-12,-20,-35,-35,-66,-34v-14,0,-24,-10,-22,-24v1,-10,11,-19,26,-18v43,2,79,25,97,55r70,116r68,116r166,-277v9,-20,47,-9,39,15r-181,303r177,299v14,20,34,35,66,34v12,-1,21,9,22,18","w":571},"Y":{"d":"27,-672v-13,-18,9,-41,29,-29v3,2,5,5,7,9r194,354r195,-354v6,-19,41,-13,40,8r-4,12r-210,382r0,269v1,13,-9,22,-20,22v-12,0,-22,-9,-21,-22r0,-269","w":515},"Z":{"d":"408,-703v33,-3,44,37,29,62r-371,595v1,2,-2,2,-2,4r316,0v13,-1,22,9,22,21v0,12,-9,22,-22,21r-321,0v-35,2,-45,-40,-28,-68r369,-593r-300,0v-13,1,-22,-9,-22,-21v0,-12,9,-22,22,-21r308,0","w":465},"_":{"d":"510,28v1,13,-12,22,-23,22r-461,0v-13,-1,-22,-10,-22,-22v0,-12,9,-22,22,-21r461,1v13,-2,23,9,23,20","w":526},"`":{"d":"39,-749v-24,-3,-20,-46,3,-41r180,42v25,4,20,48,-6,42","w":264},"a":{"d":"17,-237v0,-118,126,-185,239,-144v55,20,102,68,102,144r0,216v1,13,-9,22,-21,22v-19,0,-23,-19,-21,-42v-26,24,-65,41,-111,41v-81,0,-142,-46,-142,-127v0,-68,47,-119,123,-119v51,0,90,27,111,62v7,23,-25,36,-38,17v-14,-21,-40,-37,-72,-38v-50,0,-83,32,-83,78v0,56,46,86,103,86v59,0,109,-31,109,-90r0,-106v9,-118,-175,-149,-236,-67v-13,18,-21,40,-21,67v1,13,-9,22,-21,22v-12,0,-21,-9,-21,-22"},"b":{"d":"311,-376v66,32,118,96,113,192v-4,83,-56,140,-118,169v-55,25,-130,14,-170,-14v-19,-7,-10,-40,10,-39r8,2v35,23,91,31,137,12v65,-28,113,-111,81,-200v-24,-67,-107,-120,-193,-85v-52,21,-92,72,-92,145r0,167v1,13,-9,22,-21,22v-12,0,-22,-9,-21,-22r0,-548v1,-21,-23,-20,-25,-38v-2,-11,9,-24,20,-23v29,5,47,31,47,61r0,257v39,-60,140,-97,224,-58","w":444},"c":{"d":"231,-392v83,-2,172,72,169,157v-4,92,-56,150,-147,150v-73,0,-122,-43,-122,-114v0,-37,15,-67,43,-79v22,-10,38,23,19,37v-13,10,-21,23,-21,43v0,46,36,75,88,72v60,-4,97,-44,98,-109v1,-64,-62,-116,-127,-115v-104,1,-167,54,-170,154v-3,111,125,186,239,141v20,-7,38,-19,53,-33v21,-12,43,17,23,34v-37,32,-87,53,-151,54v-105,2,-209,-88,-206,-196v3,-95,54,-154,126,-182v25,-10,54,-14,86,-14","w":419},"d":{"d":"376,-583v2,-26,11,-50,36,-53v13,-2,24,14,18,28v-4,9,-12,13,-12,25r0,511v0,13,11,24,24,24v13,-1,23,9,23,21v0,12,-10,21,-23,21v-39,0,-65,-33,-66,-70v-43,59,-140,96,-230,62v-86,-33,-156,-145,-109,-256v29,-68,89,-122,183,-122v68,0,124,32,156,76r0,-267xm64,-196v0,83,73,154,156,154v81,0,156,-68,156,-150v0,-85,-70,-158,-156,-158v-83,0,-156,70,-156,154","w":486},"e":{"d":"390,-314v16,25,-5,54,-33,54r-202,0v-13,1,-22,-9,-22,-21v0,-11,9,-21,22,-20r191,0v-30,-27,-67,-48,-119,-49v-83,-2,-165,68,-165,154v0,126,166,201,268,120v30,-24,50,-53,58,-90v2,-12,10,-18,21,-18v13,0,23,10,20,26v-15,88,-103,158,-202,158v-106,0,-207,-87,-207,-196v0,-135,151,-239,287,-180v31,14,64,33,83,62","w":450},"f":{"d":"167,-621v100,-38,218,6,249,87v2,23,-30,30,-40,11v-24,-44,-76,-76,-142,-71v-84,6,-141,57,-141,151r0,155r67,0v13,-1,23,9,23,21v0,12,-10,22,-23,21r-67,0r0,225v-2,37,-18,73,-53,78v-20,3,-27,-30,-9,-39v14,-7,20,-20,20,-39r0,-225v-16,2,-26,-8,-26,-21v0,-13,10,-23,26,-21v3,-79,-10,-173,14,-232v19,-48,56,-83,102,-101","w":435},"g":{"d":"234,108v84,19,157,-21,157,-106r0,-249v-32,-76,-124,-126,-227,-93v-58,19,-100,66,-101,144v-2,110,124,185,236,140v19,-8,30,-25,51,-28v18,-3,28,26,12,38v-35,26,-77,44,-135,46v-107,2,-209,-87,-206,-196v3,-98,55,-159,129,-184v97,-33,195,4,241,60v2,-26,6,-52,20,-67v12,-12,40,0,34,21v-5,15,-13,30,-12,51r0,317v-4,92,-60,154,-155,154v-27,0,-62,-1,-64,-28v0,-10,9,-22,20,-20","w":466},"h":{"d":"85,-334v38,-49,131,-73,204,-43v57,24,105,78,105,160r0,196v1,13,-9,22,-21,22v-12,0,-22,-9,-21,-22r0,-196v2,-76,-59,-132,-133,-132v-76,0,-135,55,-134,131r0,197v1,12,-10,21,-20,21v-11,0,-22,-9,-21,-21r0,-554v1,-21,-23,-20,-25,-38v-2,-11,9,-25,20,-23v66,10,46,108,46,181r0,121","w":412},"i":{"d":"65,-60v-2,21,23,20,24,38v1,12,-9,23,-20,22v-29,-3,-46,-30,-46,-60r0,-311v-1,-13,9,-23,21,-23v12,0,22,10,21,23r0,311xm44,-637v12,0,22,9,21,22r0,116v1,13,-9,22,-21,22v-12,0,-22,-9,-21,-22r0,-116v-1,-13,9,-22,21,-22","w":93},"j":{"d":"28,108v84,19,157,-21,157,-106r0,-373v-1,-13,9,-23,21,-23v12,0,22,10,21,23r0,374v-4,91,-60,153,-155,153v-27,0,-62,-1,-64,-28v0,-10,9,-22,20,-20xm212,-637v11,0,21,9,20,22r0,116v1,13,-9,22,-20,22v-12,0,-22,-9,-21,-22r0,-116v-1,-13,9,-22,21,-22","w":246},"k":{"d":"423,-56v-18,55,-116,74,-167,34v-21,-17,-45,-37,-45,-70v0,-18,13,-28,28,-33v48,-14,85,-58,82,-117v-4,-78,-86,-133,-167,-98v-36,15,-67,49,-67,99r0,220v-1,14,-2,21,-21,21v-19,0,-20,-6,-21,-21r0,-554v1,-21,-23,-20,-25,-38v-2,-11,9,-24,20,-23v29,5,47,31,47,61r0,234v35,-43,112,-66,177,-39v54,23,99,71,99,145v0,70,-46,132,-107,149v14,49,102,59,129,15v11,-17,45,-8,38,15","w":410},"l":{"d":"24,-636v28,4,46,31,46,61r0,554v1,13,-9,22,-21,22v-12,0,-22,-9,-21,-22r0,-554v1,-22,-25,-20,-24,-41v0,-11,9,-22,20,-20","w":99},"m":{"d":"344,-314v30,-61,126,-97,206,-64v54,22,96,71,96,148r0,209v1,13,-9,22,-20,22v-12,0,-22,-9,-21,-22r0,-209v-2,-84,-59,-129,-147,-117v-33,5,-53,22,-72,46v-31,36,-21,111,-21,175r0,105v1,13,-9,22,-21,22v-12,0,-22,-9,-21,-22r0,-209v-2,-77,-47,-117,-120,-120v-63,-2,-119,48,-119,114r0,215v1,13,-9,22,-21,22v-12,0,-22,-9,-21,-22r0,-311v1,-22,-24,-20,-24,-41v0,-11,9,-20,20,-20v24,7,41,26,45,52v28,-29,68,-50,121,-50v63,0,116,32,140,77","w":660},"n":{"d":"85,-334v38,-49,131,-73,204,-43v57,24,105,78,105,160r0,196v1,13,-9,22,-21,22v-12,0,-22,-9,-21,-22r0,-196v2,-102,-92,-157,-189,-122v-42,15,-78,57,-78,116r0,202v1,12,-10,21,-21,21v-11,0,-22,-9,-21,-21r1,-311v1,-21,-24,-19,-25,-38v-1,-12,9,-25,20,-23v27,4,43,30,46,59","w":412},"o":{"d":"222,-392v105,0,202,89,202,196v0,107,-96,196,-202,196v-105,0,-202,-90,-202,-196v0,-108,96,-196,202,-196xm222,-42v84,0,161,-68,161,-154v0,-85,-77,-154,-161,-154v-83,0,-160,70,-160,154v0,84,77,154,160,154","w":433},"p":{"d":"294,-375v66,30,117,97,112,193v-4,81,-51,141,-112,168v-53,24,-122,16,-162,-12v-4,-5,-10,-9,-10,-18v-1,-16,19,-27,33,-16v30,23,82,28,123,9v53,-25,91,-78,87,-155v-5,-95,-92,-172,-193,-131v-50,20,-86,72,-86,142r0,419v1,13,-9,22,-21,22v-12,0,-22,-9,-21,-22r0,-554v1,-22,-24,-20,-24,-41v0,-11,9,-20,20,-20v29,8,48,33,46,72v38,-56,128,-91,208,-56","w":426},"q":{"d":"149,-50v46,21,98,5,133,-14v22,-2,30,26,12,38v-40,27,-110,37,-162,12v-66,-30,-117,-96,-112,-192v4,-81,49,-139,110,-168v79,-37,173,0,210,55v-1,-38,14,-66,46,-71v11,-2,21,11,20,22v-1,18,-24,17,-24,38r0,554v1,13,-9,22,-21,22v-12,0,-22,-9,-21,-22r1,-320v0,-36,0,-72,-1,-107v0,-72,-64,-145,-139,-145v-100,0,-169,114,-129,214v15,37,42,68,77,84","w":426},"r":{"d":"182,-392v55,-1,92,37,92,94v0,47,-45,89,-92,86v-31,-2,-63,-12,-67,-43v-1,-10,11,-21,21,-20v19,2,25,22,47,22v25,0,48,-21,50,-46v3,-50,-54,-65,-88,-39v-48,35,-65,103,-65,192r0,125v1,13,-9,22,-21,22v-12,0,-22,-9,-21,-22r0,-311v1,-21,-24,-19,-25,-38v-1,-12,9,-25,20,-23v30,5,44,32,47,64v22,-32,55,-62,102,-63","w":288},"s":{"d":"231,-111v3,-54,-53,-66,-99,-73v-68,-10,-125,-59,-100,-135v14,-42,51,-73,108,-73v50,0,86,12,113,40v15,16,-11,43,-31,27v-23,-18,-45,-25,-82,-25v-48,0,-83,35,-70,83v11,42,69,39,111,51v44,12,93,46,92,100v-1,99,-130,145,-213,96v-21,-12,-43,-23,-47,-50v-3,-18,27,-27,38,-11v16,23,45,39,83,39v49,0,94,-24,97,-69","w":286},"t":{"d":"121,-100v-7,61,85,79,109,32v9,-18,40,-13,40,8v-12,41,-52,64,-102,60v-52,-4,-89,-40,-89,-100r0,-146v-28,-1,-67,7,-66,-21v0,-26,38,-19,66,-20r0,-179v-1,-13,9,-23,21,-23v12,0,22,10,21,23r0,179r65,0v13,-1,23,9,23,20v-2,33,-54,18,-88,21r0,146","w":261},"u":{"d":"318,-394v12,0,22,10,21,23r0,317v-1,18,22,16,20,35v-1,10,-9,20,-20,19v-23,-3,-37,-22,-41,-44v-26,26,-63,43,-110,43v-80,0,-150,-58,-150,-149r0,-188v1,-18,-21,-15,-21,-32v0,-12,9,-25,20,-23v25,4,43,27,43,55r0,188v-4,66,50,108,108,108v58,0,109,-42,109,-108r0,-221v-1,-13,9,-23,21,-23","w":377},"v":{"d":"298,-379v6,-24,49,-13,40,11r-141,364v-6,13,-34,15,-39,0r-142,-370v-1,-22,33,-25,41,-5r121,310","w":355},"w":{"d":"592,-54v0,16,21,16,21,32v0,12,-9,23,-20,22v-24,-2,-37,-22,-42,-44v-25,26,-63,43,-109,43v-57,0,-107,-29,-129,-69v-29,55,-116,88,-190,58v-49,-21,-90,-67,-90,-138r0,-188v1,-18,-21,-15,-21,-32v0,-12,9,-25,20,-23v25,4,43,27,43,55r0,188v-2,63,47,108,108,108v62,0,109,-44,109,-108r0,-221v-1,-13,9,-23,21,-23v11,0,21,10,20,23r0,221v0,63,49,111,115,108v53,-3,102,-42,102,-104r0,-225v-1,-13,9,-23,21,-23v12,0,22,10,21,23r0,317","w":632},"x":{"d":"387,-20v-1,28,-46,22,-66,10v-11,-6,-19,-13,-26,-23r-101,-140r-120,164v-9,18,-51,6,-38,-17v19,-34,46,-63,68,-95r64,-88r-91,-126v-7,-10,-20,-15,-37,-15v-14,0,-24,-10,-22,-24v3,-25,45,-20,66,-8v32,18,47,51,68,80r42,58r26,-34r75,-105v10,-20,50,-5,37,17v-33,57,-77,104,-113,158r109,151v7,10,20,15,36,15v13,-1,23,10,23,22","w":405},"y":{"d":"139,108v87,20,164,-23,158,-116r-1,-35v-26,25,-63,42,-109,42v-80,0,-150,-58,-150,-149r0,-188v1,-18,-21,-15,-21,-32v0,-12,9,-25,20,-23v25,4,43,27,43,55r0,188v-4,66,50,108,108,108v58,0,109,-42,109,-108r0,-221v-1,-13,9,-23,21,-23v12,0,22,10,21,23r0,374v-5,93,-62,153,-163,153v-24,0,-55,-2,-56,-28v0,-10,9,-22,20,-20","w":354},"z":{"d":"318,-76v10,-21,46,-11,38,13v-13,36,-51,62,-97,63r-221,0v-16,1,-28,-21,-17,-34r65,-78r128,-160r64,-78r-197,0v-20,-1,-19,23,-37,24v-11,1,-23,-9,-22,-20v4,-29,30,-46,59,-46r241,0v16,-1,27,21,16,34r-257,316r178,0v28,0,50,-14,59,-34"},"\u00a1":{"d":"98,198v-12,0,-22,-10,-21,-23r0,-503v-1,-13,9,-23,21,-23v11,0,21,10,20,23r0,504v1,12,-10,22,-20,22xm98,-370v-40,0,-68,-27,-68,-68v0,-41,28,-68,68,-68v40,0,68,27,68,68v0,41,-28,68,-68,68","w":191},"\u00a2":{"d":"230,-564v83,-2,170,72,170,158v0,13,-10,22,-22,22v-11,0,-21,-9,-20,-22v0,-65,-62,-117,-128,-116r0,309v51,-2,94,-19,123,-47v21,-12,42,18,23,35v-35,31,-84,52,-146,53r0,152v1,13,-9,22,-20,22v-12,0,-22,-9,-21,-22r0,-155v-87,-13,-170,-94,-170,-193v0,-105,76,-180,170,-192r0,-122v-1,-13,9,-23,21,-23v11,0,21,10,20,23r0,118xm189,-518v-72,11,-128,69,-128,150v0,77,61,139,128,151r0,-301","w":419},"\u00a3":{"d":"160,-594v96,0,146,63,157,151v-1,13,-9,22,-22,22v-19,-1,-19,-23,-23,-41v-13,-51,-50,-90,-114,-90v-57,0,-103,38,-98,101v4,37,25,63,46,85r86,0v13,-1,22,9,22,21v0,30,-43,19,-75,21v30,31,46,107,12,147v43,17,112,8,122,-32v5,-21,44,-18,41,5v-7,51,-60,75,-116,77v-33,1,-52,-15,-81,-15v-18,0,-28,12,-45,12v-17,0,-27,-21,-16,-34v16,-13,42,-14,56,-32v11,-14,17,-27,17,-47v-2,-35,-25,-59,-42,-81v-29,-2,-72,9,-72,-21v0,-17,16,-23,37,-21v-19,-23,-34,-57,-34,-95v0,-84,61,-133,142,-133","w":332},"\u00a4":{"d":"410,-264v11,-13,36,-3,36,14r0,75v1,13,-9,22,-21,22v-12,0,-22,-9,-21,-22r0,-31v-30,20,-67,34,-113,34v-92,0,-171,-62,-193,-137v-30,-2,-77,10,-77,-21v0,-28,39,-20,68,-21v-1,-12,-1,-21,0,-33v-28,-1,-69,8,-68,-21v0,-12,9,-22,22,-21r55,0v22,-76,101,-138,193,-138v45,0,84,14,113,34v-1,-25,-2,-53,21,-53v12,0,22,10,21,23r0,75v1,17,-25,27,-36,14v-41,-51,-143,-69,-208,-25v-27,18,-47,41,-60,70r240,0v13,-1,23,9,23,21v0,12,-10,22,-23,21r-251,0v-1,12,-1,21,0,33r214,0v13,-1,22,9,22,21v0,12,-9,22,-22,21r-203,0v27,69,126,122,214,83v21,-9,39,-22,54,-38","w":467},"\u00a5":{"d":"36,-545v-11,-19,9,-41,28,-29v3,2,6,5,8,9r103,186r102,-186v8,-21,46,-11,39,14r-68,125v32,3,84,-12,86,21v0,12,-10,22,-23,21r-86,0r-18,33r104,0v13,-1,23,9,23,21v0,12,-10,22,-23,21r-115,0r0,129v1,13,-9,22,-21,22v-12,0,-22,-9,-21,-22r0,-129r-116,0v-13,1,-22,-9,-22,-21v0,-12,9,-22,22,-21r105,0r-19,-33r-86,0v-13,1,-22,-9,-22,-21v0,-12,9,-22,22,-21r63,0","w":350},"\u00a8":{"d":"95,-796v18,0,34,16,34,34v0,18,-16,34,-34,34v-18,0,-34,-16,-34,-34v0,-18,16,-34,34,-34xm183,-796v18,0,34,16,34,34v0,18,-16,34,-34,34v-18,0,-34,-16,-34,-34v0,-18,16,-34,34,-34","w":264},"\u00aa":{"d":"3,-619v0,-84,121,-109,166,-49v26,34,12,99,16,157v1,11,-7,19,-16,19v-10,0,-17,-8,-17,-19r0,4v-24,23,-84,13,-103,-7v-12,-13,-23,-27,-23,-50v-1,-49,53,-83,100,-58v12,7,37,20,27,40v-6,11,-22,12,-28,1v-14,-26,-70,-18,-67,17v2,24,21,38,47,37v26,-1,47,-14,47,-39r0,-53v1,-37,-35,-55,-70,-49v-26,5,-45,20,-46,49v1,11,-7,18,-16,18v-10,0,-17,-7,-17,-18","w":188},"\u00ab":{"d":"166,-508v15,-15,45,3,34,24v-1,3,-4,5,-7,8r-131,114r131,114v18,11,4,46,-19,36v-2,-1,-5,-3,-8,-5r-149,-129v-10,-6,-8,-26,0,-32xm276,-508v15,-15,45,3,34,24v-1,3,-4,5,-7,8r-131,114r131,114v19,11,4,46,-19,36v-2,-1,-5,-3,-8,-5r-149,-129v-10,-6,-8,-26,0,-32","w":322},"\u00ad":{"d":"14,-321v0,-12,9,-22,22,-21r111,0v13,-1,23,9,23,21v0,12,-10,22,-23,21r-111,0v-13,1,-22,-9,-22,-21","w":185},"\u00b4":{"d":"211,-789v19,-6,34,17,23,33v-3,4,-7,6,-13,7r-175,43v-28,4,-34,-36,-8,-42","w":264},"\u00b8":{"d":"136,66v-11,0,-17,8,-28,9v-14,1,-29,-17,-20,-30r22,-34v12,-15,14,-42,37,-45v15,-2,27,18,18,33r-17,27v36,5,65,39,60,81v-5,45,-61,79,-107,53v-15,-8,-38,-30,-19,-49v10,-9,25,-5,30,4v14,22,55,12,55,-19v0,-17,-15,-30,-31,-30","w":264},"\u00ba":{"d":"111,-712v56,0,107,47,107,104v0,56,-50,104,-107,104v-56,0,-107,-48,-107,-104v0,-57,51,-104,107,-104xm111,-537v39,0,75,-31,75,-71v0,-40,-36,-71,-75,-71v-38,0,-74,31,-74,71v0,39,36,71,74,71","w":222},"\u00bb":{"d":"29,-476v-18,-13,-5,-46,19,-36v2,1,5,2,8,4r149,130v10,6,8,26,0,32r-153,132v-21,13,-44,-16,-23,-34r131,-114xm139,-476v-18,-13,-5,-46,19,-36v2,1,5,2,8,4r149,130v10,6,8,26,0,32r-153,132v-21,13,-44,-16,-23,-34r131,-114","w":322},"\u00bf":{"d":"380,40v7,-24,46,-15,40,10v-28,106,-165,185,-289,127v-71,-33,-127,-126,-90,-222v17,-43,50,-76,87,-101v46,-32,95,-62,122,-114v11,-21,8,-51,3,-75v0,-13,10,-22,24,-20v21,4,23,32,23,55v0,108,-93,149,-162,197v-52,36,-91,121,-48,191v24,38,68,69,131,69v78,0,140,-54,159,-117xm273,-368v-41,0,-68,-27,-68,-68v0,-41,28,-68,68,-68v40,0,68,27,68,68v0,41,-28,68,-68,68","w":431},"\u00c0":{"d":"59,-7v-7,23,-51,11,-41,-13r283,-647v6,-16,26,-30,43,-16v5,4,9,10,12,17r248,648v4,19,-17,30,-33,21v-3,-2,-6,-6,-8,-11r-102,-257r-286,0xm446,-307r-118,-317r-136,317r254,0xm174,-752v-24,-3,-20,-46,3,-41r180,42v24,3,20,48,-5,42","w":629},"\u00c1":{"d":"59,-7v-7,23,-51,11,-41,-13r283,-647v6,-16,26,-30,43,-16v5,4,9,10,12,17r248,648v4,19,-17,30,-33,21v-3,-2,-6,-6,-8,-11r-102,-257r-286,0xm446,-307r-118,-317r-136,317r254,0xm472,-789v19,-6,34,17,23,33v-3,4,-7,6,-13,7r-175,43v-28,4,-34,-36,-8,-42","w":629},"\u00c2":{"d":"59,-7v-7,23,-51,11,-41,-13r283,-647v6,-16,26,-30,43,-16v5,4,9,10,12,17r248,648v4,19,-17,30,-33,21v-3,-2,-6,-6,-8,-11r-102,-257r-286,0xm446,-307r-118,-317r-136,317r254,0xm255,-676v-19,11,-39,-10,-28,-29v2,-3,5,-6,9,-8r86,-43v5,1,12,-1,15,1r82,42v22,7,13,43,-11,40v-29,-11,-53,-27,-80,-40","w":629},"\u00c3":{"d":"59,-7v-7,23,-51,11,-41,-13r283,-647v6,-16,26,-30,43,-16v5,4,9,10,12,17r248,648v4,19,-17,30,-33,21v-3,-2,-6,-6,-8,-11r-102,-257r-286,0xm446,-307r-118,-317r-136,317r254,0xm380,-743v26,10,32,-16,51,-18v10,0,23,10,21,20v-4,27,-31,41,-61,41v-23,0,-39,-11,-55,-19v-18,-16,-71,-37,-82,-1v-7,21,-43,18,-41,-5v5,-46,59,-69,107,-49v21,8,39,22,60,31","w":629},"\u00c4":{"d":"59,-7v-7,23,-51,11,-41,-13r283,-647v6,-16,26,-30,43,-16v5,4,9,10,12,17r248,648v4,19,-17,30,-33,21v-3,-2,-6,-6,-8,-11r-102,-257r-286,0xm446,-307r-118,-317r-136,317r254,0xm284,-765v18,0,34,16,34,34v0,18,-16,34,-34,34v-18,0,-34,-16,-34,-34v0,-18,16,-34,34,-34xm372,-765v18,0,34,16,34,34v0,18,-16,34,-34,34v-18,0,-34,-16,-34,-34v0,-18,16,-34,34,-34","w":629},"\u00c5":{"d":"59,-7v-7,23,-51,11,-41,-13r283,-647v6,-16,26,-30,43,-16v5,4,9,10,12,17r248,648v4,19,-17,30,-33,21v-3,-2,-6,-6,-8,-11r-102,-257r-286,0xm446,-307r-118,-317r-136,317r254,0xm331,-786v34,0,62,28,62,62v0,34,-28,63,-62,63v-34,0,-63,-29,-63,-63v0,-34,29,-62,63,-62xm331,-703v11,0,22,-10,21,-21v0,-10,-11,-21,-21,-21v-11,-1,-21,10,-21,21v0,12,9,21,21,21","w":629},"\u00c6":{"d":"809,-21v0,12,-10,22,-23,21r-267,0v-32,1,-60,-26,-59,-58r0,-217r-231,0r-168,274v-9,20,-50,7,-39,-15v23,-47,55,-88,81,-133r77,-126v-27,-1,-63,6,-62,-21v0,-12,9,-22,22,-21r66,0r231,-376v12,-17,50,-10,77,-10r184,0v13,-1,22,9,22,21v0,12,-9,22,-22,21r-179,0v-9,0,-17,7,-17,16r0,328r236,0v13,-1,23,9,23,21v-1,32,-51,21,-83,21r-176,0r0,217v0,9,8,16,17,16r267,0v13,-1,23,9,23,21xm461,-653r-206,336r205,0","w":826},"\u00c7":{"d":"356,76v-11,0,-17,8,-28,9v-14,1,-29,-17,-20,-30r42,-68v7,-19,42,-10,39,10v-2,16,-14,26,-21,39v36,5,65,39,60,81v-5,45,-61,79,-107,53v-15,-8,-38,-30,-19,-49v10,-9,25,-5,30,4v14,22,55,12,55,-19v0,-17,-15,-30,-31,-30xm678,-178v13,-19,46,-6,38,17v-59,94,-172,169,-312,169v-188,0,-302,-95,-354,-234v-18,-49,-26,-102,-26,-160v0,-182,165,-338,344,-335v150,2,253,59,298,165v15,35,23,75,23,118v0,123,-109,239,-233,236v-122,-2,-239,-75,-223,-211v7,-55,60,-120,123,-120v13,0,23,9,23,20v0,12,-10,21,-23,21v-47,0,-81,47,-83,96v-5,101,90,151,183,153v102,2,194,-93,191,-195v-4,-166,-110,-238,-279,-241v-158,-3,-307,132,-303,293v4,168,75,279,198,328v91,36,212,34,296,-14v47,-27,89,-60,119,-106","w":733},"\u00c8":{"d":"366,-21v0,12,-9,22,-22,21r-268,0v-31,1,-60,-27,-59,-58r0,-587v-1,-31,28,-59,59,-58r179,0v13,-1,23,9,23,21v0,12,-10,22,-23,21r-179,0v-9,0,-17,7,-17,16r0,328r236,0v13,-1,23,9,23,21v0,12,-10,22,-23,21r-236,0r0,217v0,9,8,16,17,16r268,0v13,-1,22,9,22,21xm39,-759v-24,-3,-20,-46,3,-41r180,42v25,4,20,48,-6,42","w":383},"\u00c9":{"d":"366,-21v0,12,-9,22,-22,21r-268,0v-31,1,-60,-27,-59,-58r0,-587v-1,-31,28,-59,59,-58r179,0v13,-1,23,9,23,21v0,12,-10,22,-23,21r-179,0v-9,0,-17,7,-17,16r0,328r236,0v13,-1,23,9,23,21v0,12,-10,22,-23,21r-236,0r0,217v0,9,8,16,17,16r268,0v13,-1,22,9,22,21xm321,-799v19,-6,34,17,23,33v-3,4,-7,6,-13,7r-175,43v-28,4,-34,-36,-8,-42","w":383},"\u00ca":{"d":"366,-21v0,12,-9,22,-22,21r-268,0v-31,1,-60,-27,-59,-58r0,-587v-1,-31,28,-59,59,-58r179,0v13,-1,23,9,23,21v0,12,-10,22,-23,21r-179,0v-9,0,-17,7,-17,16r0,328r236,0v13,-1,23,9,23,21v0,12,-10,22,-23,21r-236,0r0,217v0,9,8,16,17,16r268,0v13,-1,22,9,22,21xm92,-719v-19,11,-39,-10,-28,-29v2,-3,5,-6,9,-8r87,-44r14,2r82,42v22,7,13,43,-10,40v-29,-11,-54,-27,-81,-40","w":383},"\u00cb":{"d":"366,-21v0,12,-9,22,-22,21r-268,0v-31,1,-60,-27,-59,-58r0,-587v-1,-31,28,-59,59,-58r179,0v13,-1,23,9,23,21v0,12,-10,22,-23,21r-179,0v-9,0,-17,7,-17,16r0,328r236,0v13,-1,23,9,23,21v0,12,-10,22,-23,21r-236,0r0,217v0,9,8,16,17,16r268,0v13,-1,22,9,22,21xm115,-786v18,0,34,16,34,34v0,18,-16,34,-34,34v-18,0,-34,-16,-34,-34v0,-18,16,-34,34,-34xm203,-786v18,0,34,16,34,34v0,18,-16,34,-34,34v-18,0,-34,-16,-34,-34v0,-18,16,-34,34,-34","w":383},"\u00cc":{"d":"37,-705v12,0,22,10,21,23r0,661v1,13,-9,22,-21,22v-12,0,-22,-9,-21,-22r0,-661v-1,-13,9,-23,21,-23xm-138,-770v-25,-5,-18,-47,8,-41r175,42v24,3,20,48,-5,42","w":82},"\u00cd":{"d":"37,-705v12,0,22,10,21,23r0,661v1,13,-9,22,-21,22v-12,0,-22,-9,-21,-22r0,-661v-1,-13,9,-23,21,-23xm211,-809v19,-6,34,17,23,33v-3,4,-7,6,-13,7r-175,43v-28,4,-34,-36,-8,-42","w":82},"\u00ce":{"d":"37,-705v12,0,22,10,21,23r0,661v1,13,-9,22,-21,22v-12,0,-22,-9,-21,-22r0,-661v-1,-13,9,-23,21,-23xm-38,-699v-18,11,-38,-11,-27,-29v2,-3,5,-6,9,-8r86,-44r14,2r82,42v22,7,13,43,-10,40v-29,-11,-54,-27,-81,-40","w":82},"\u00cf":{"d":"37,-705v12,0,22,10,21,23r0,661v1,13,-9,22,-21,22v-12,0,-22,-9,-21,-22r0,-661v-1,-13,9,-23,21,-23xm-6,-769v17,0,33,16,33,34v0,18,-16,34,-33,34v-18,1,-34,-16,-34,-34v0,-18,16,-35,34,-34xm81,-769v18,0,34,16,34,34v0,18,-16,34,-34,34v-18,0,-34,-16,-34,-34v0,-18,16,-34,34,-34","w":82},"\u00d0":{"d":"375,-706v191,0,359,163,359,356v0,227,-222,419,-469,341v-36,-11,-69,-29,-100,-49v-18,-12,-5,-51,17,-38v53,30,113,64,193,64v170,0,318,-148,318,-318v0,-171,-148,-314,-318,-314v-75,0,-143,7,-193,36v-28,15,-43,40,-43,75r0,181r82,0v13,-1,23,9,23,20v0,12,-10,22,-23,21r-82,0r0,306v1,13,-9,22,-20,22v-12,0,-22,-9,-21,-22r0,-306r-72,0v-13,1,-22,-9,-22,-21v0,-11,9,-21,22,-20r72,0r0,-181v0,-50,18,-86,55,-107v60,-35,131,-46,222,-46","w":753},"\u00d1":{"d":"410,-705v12,0,22,10,21,23r0,652v2,33,-46,35,-59,9r-310,-603r0,612v1,13,-9,22,-20,22v-12,0,-22,-9,-21,-22r0,-661v-2,-30,41,-40,55,-14r313,610r0,-605v-1,-13,9,-23,21,-23xm270,-753v26,10,32,-16,51,-18v10,0,23,10,21,20v-4,27,-31,41,-61,41v-23,0,-39,-11,-55,-19v-18,-16,-71,-37,-82,-1v-7,21,-43,18,-41,-5v5,-46,59,-69,107,-49v21,8,39,22,60,31","w":452},"\u00d3":{"d":"574,-679v133,52,234,161,234,338v0,160,-109,266,-234,313v-93,36,-202,38,-297,2v-133,-50,-243,-160,-238,-339v5,-161,108,-265,235,-314v93,-36,207,-36,300,0xm766,-353v0,-95,-35,-170,-104,-227v-135,-112,-341,-111,-477,0v-69,57,-105,132,-105,227v0,95,36,170,105,227v136,112,340,112,476,0v69,-57,105,-132,105,-227xm571,-801v19,-6,34,17,23,33v-3,4,-7,6,-13,7r-175,43v-28,4,-34,-36,-8,-42","w":846},"\u00d4":{"d":"574,-679v133,52,234,161,234,338v0,160,-109,266,-234,313v-93,36,-202,38,-297,2v-133,-50,-243,-160,-238,-339v5,-161,108,-265,235,-314v93,-36,207,-36,300,0xm766,-353v0,-95,-35,-170,-104,-227v-135,-112,-341,-111,-477,0v-69,57,-105,132,-105,227v0,95,36,170,105,227v136,112,340,112,476,0v69,-57,105,-132,105,-227xm355,-719v-19,11,-39,-10,-28,-29v2,-3,5,-6,9,-8r86,-44v5,1,12,0,15,2r82,42v22,7,13,43,-11,40v-28,-12,-53,-27,-80,-40","w":846},"\u00d5":{"d":"574,-679v133,52,234,161,234,338v0,160,-109,266,-234,313v-93,36,-202,38,-297,2v-133,-50,-243,-160,-238,-339v5,-161,108,-265,235,-314v93,-36,207,-36,300,0xm766,-353v0,-95,-35,-170,-104,-227v-135,-112,-341,-111,-477,0v-69,57,-105,132,-105,227v0,95,36,170,105,227v136,112,340,112,476,0v69,-57,105,-132,105,-227xm480,-763v26,10,32,-16,51,-18v10,0,23,10,21,20v-4,27,-31,41,-61,41v-23,0,-39,-11,-55,-19v-18,-16,-71,-37,-82,-1v-7,21,-43,18,-41,-5v5,-46,59,-69,107,-49v21,8,39,22,60,31","w":846},"\u00d6":{"d":"574,-679v133,52,234,161,234,338v0,160,-109,266,-234,313v-93,36,-202,38,-297,2v-133,-50,-243,-160,-238,-339v5,-161,108,-265,235,-314v93,-36,207,-36,300,0xm766,-353v0,-95,-35,-170,-104,-227v-135,-112,-341,-111,-477,0v-69,57,-105,132,-105,227v0,95,36,170,105,227v136,112,340,112,476,0v69,-57,105,-132,105,-227xm391,-792v18,0,34,16,34,34v0,18,-16,34,-34,34v-18,0,-34,-16,-34,-34v0,-18,16,-34,34,-34xm479,-792v18,0,34,16,34,34v0,18,-16,34,-34,34v-18,0,-34,-16,-34,-34v0,-18,16,-34,34,-34","w":846},"\u00d8":{"d":"724,-697v15,-16,46,-2,36,21v-22,27,-49,50,-73,75v65,61,111,145,107,260v-5,162,-111,268,-239,315v-135,50,-300,20,-391,-52r-74,74v-21,13,-43,-16,-25,-34r67,-67v-65,-60,-113,-146,-108,-260v7,-160,108,-264,235,-314v132,-52,309,-22,395,52xm194,-108v55,37,129,65,215,66v89,0,167,-29,238,-84v99,-76,134,-222,79,-350v-16,-37,-40,-68,-69,-95xm624,-597v-54,-39,-128,-66,-215,-67v-89,0,-167,29,-238,84v-99,76,-135,222,-79,350v16,37,41,68,70,95","w":813},"\u00d9":{"d":"432,-703v12,0,22,8,21,21r0,617v-2,25,28,23,27,46v0,10,-9,21,-20,19v-36,-7,-52,-42,-49,-88v-39,53,-100,93,-186,88v-91,-5,-154,-61,-185,-132v-11,-26,-17,-54,-17,-83r0,-467v-1,-13,9,-23,21,-23v11,0,21,10,20,23r0,467v-3,92,82,173,174,173v92,0,173,-80,173,-172r0,-468v-1,-13,9,-21,21,-21xm139,-749v-24,-3,-20,-46,3,-41r180,42v25,4,20,48,-6,42","w":489},"\u00da":{"d":"432,-703v12,0,22,8,21,21r0,617v-2,25,28,23,27,46v0,10,-9,21,-20,19v-36,-7,-52,-42,-49,-88v-39,53,-100,93,-186,88v-91,-5,-154,-61,-185,-132v-11,-26,-17,-54,-17,-83r0,-467v-1,-13,9,-23,21,-23v11,0,21,10,20,23r0,467v-3,92,82,173,174,173v92,0,173,-80,173,-172r0,-468v-1,-13,9,-21,21,-21xm371,-789v19,-6,34,17,23,33v-3,4,-7,6,-13,7r-175,43v-28,4,-34,-36,-8,-42","w":489},"\u00db":{"d":"432,-703v12,0,22,8,21,21r0,617v-2,25,28,23,27,46v0,10,-9,21,-20,19v-36,-7,-52,-42,-49,-88v-39,53,-100,93,-186,88v-91,-5,-154,-61,-185,-132v-11,-26,-17,-54,-17,-83r0,-467v-1,-13,9,-23,21,-23v11,0,21,10,20,23r0,467v-3,92,82,173,174,173v92,0,173,-80,173,-172r0,-468v-1,-13,9,-21,21,-21xm162,-709v-19,11,-39,-10,-28,-29v2,-3,5,-6,9,-8r87,-44r14,2r82,42v22,7,13,43,-10,40v-29,-11,-54,-27,-81,-40","w":489},"\u00dc":{"d":"432,-703v12,0,22,8,21,21r0,617v-2,25,28,23,27,46v0,10,-9,21,-20,19v-36,-7,-52,-42,-49,-88v-39,53,-100,93,-186,88v-91,-5,-154,-61,-185,-132v-11,-26,-17,-54,-17,-83r0,-467v-1,-13,9,-23,21,-23v11,0,21,10,20,23r0,467v-3,92,82,173,174,173v92,0,173,-80,173,-172r0,-468v-1,-13,9,-21,21,-21xm188,-775v18,0,34,16,34,34v0,18,-16,34,-34,34v-18,0,-34,-16,-34,-34v0,-18,16,-34,34,-34xm276,-775v18,0,34,16,34,34v0,18,-16,34,-34,34v-18,0,-34,-16,-34,-34v0,-18,16,-34,34,-34","w":489},"\u00de":{"d":"239,-584v101,-3,189,88,189,189v0,119,-122,222,-250,178v-21,-7,-18,-44,5,-41v18,2,34,10,56,10v76,0,148,-68,148,-147v0,-79,-69,-147,-148,-147r-90,0r0,521v-1,14,-2,21,-21,21v-19,0,-20,-6,-21,-21r0,-576v1,-34,-30,-65,-64,-64v-13,1,-22,-9,-22,-21v0,-12,9,-22,22,-21v61,0,112,51,106,119r90,0","w":449},"\u00df":{"d":"397,-116v0,78,-57,120,-136,115v-51,-3,-99,-28,-118,-67v-10,-22,23,-36,37,-17v18,25,54,43,95,43v47,0,81,-26,81,-75v0,-56,-63,-76,-102,-101v-39,-25,-102,-46,-86,-110v8,-31,31,-53,49,-76v32,-40,76,-86,59,-160v-11,-50,-45,-118,-110,-97v-40,14,-59,40,-81,84v-33,64,-24,185,-24,283r0,296v1,13,-9,22,-21,22v-12,0,-22,-9,-21,-22r0,-445v2,-132,44,-226,136,-259v97,-34,158,74,166,154v11,115,-76,147,-111,226v-5,20,11,33,24,43v43,31,97,55,134,93v19,20,29,42,29,70","w":416},"\u00e0":{"d":"17,-237v0,-118,126,-185,239,-144v55,20,102,68,102,144r0,216v1,13,-9,22,-21,22v-19,0,-23,-19,-21,-42v-26,24,-65,41,-111,41v-81,0,-142,-46,-142,-127v0,-68,47,-119,123,-119v51,0,90,27,111,62v7,23,-25,36,-38,17v-14,-21,-40,-37,-72,-38v-50,0,-83,32,-83,78v0,56,46,86,103,86v59,0,109,-31,109,-90r0,-106v9,-118,-175,-149,-236,-67v-13,18,-21,40,-21,67v1,13,-9,22,-21,22v-12,0,-21,-9,-21,-22xm45,-452v-24,-3,-20,-46,3,-41r180,42v25,4,20,48,-6,42"},"\u00e1":{"d":"17,-237v0,-118,126,-185,239,-144v55,20,102,68,102,144r0,216v1,13,-9,22,-21,22v-19,0,-23,-19,-21,-42v-26,24,-65,41,-111,41v-81,0,-142,-46,-142,-127v0,-68,47,-119,123,-119v51,0,90,27,111,62v7,23,-25,36,-38,17v-14,-21,-40,-37,-72,-38v-50,0,-83,32,-83,78v0,56,46,86,103,86v59,0,109,-31,109,-90r0,-106v9,-118,-175,-149,-236,-67v-13,18,-21,40,-21,67v1,13,-9,22,-21,22v-12,0,-21,-9,-21,-22xm304,-495v19,-6,34,17,23,33v-3,4,-7,6,-13,7r-175,43v-28,4,-34,-36,-8,-42"},"\u00e2":{"d":"17,-237v0,-118,126,-185,239,-144v55,20,102,68,102,144r0,216v1,13,-9,22,-21,22v-19,0,-23,-19,-21,-42v-26,24,-65,41,-111,41v-81,0,-142,-46,-142,-127v0,-68,47,-119,123,-119v51,0,90,27,111,62v7,23,-25,36,-38,17v-14,-21,-40,-37,-72,-38v-50,0,-83,32,-83,78v0,56,46,86,103,86v59,0,109,-31,109,-90r0,-106v9,-118,-175,-149,-236,-67v-13,18,-21,40,-21,67v1,13,-9,22,-21,22v-12,0,-21,-9,-21,-22xm117,-397v-19,11,-39,-10,-28,-29v2,-3,5,-6,9,-8r86,-44v5,1,12,0,15,2r82,42v22,7,13,43,-11,40v-28,-12,-53,-27,-80,-40"},"\u00e3":{"d":"17,-237v0,-118,126,-185,239,-144v55,20,102,68,102,144r0,216v1,13,-9,22,-21,22v-19,0,-23,-19,-21,-42v-26,24,-65,41,-111,41v-81,0,-142,-46,-142,-127v0,-68,47,-119,123,-119v51,0,90,27,111,62v7,23,-25,36,-38,17v-14,-21,-40,-37,-72,-38v-50,0,-83,32,-83,78v0,56,46,86,103,86v59,0,109,-31,109,-90r0,-106v9,-118,-175,-149,-236,-67v-13,18,-21,40,-21,67v1,13,-9,22,-21,22v-12,0,-21,-9,-21,-22xm240,-450v26,10,32,-16,51,-18v10,0,23,10,21,20v-4,27,-31,41,-61,41v-23,0,-39,-11,-55,-19v-18,-16,-71,-37,-82,-1v-7,21,-43,18,-41,-5v5,-46,59,-70,107,-50v21,8,39,23,60,32"},"\u00e4":{"d":"17,-237v0,-118,126,-185,239,-144v55,20,102,68,102,144r0,216v1,13,-9,22,-21,22v-19,0,-23,-19,-21,-42v-26,24,-65,41,-111,41v-81,0,-142,-46,-142,-127v0,-68,47,-119,123,-119v51,0,90,27,111,62v7,23,-25,36,-38,17v-14,-21,-40,-37,-72,-38v-50,0,-83,32,-83,78v0,56,46,86,103,86v59,0,109,-31,109,-90r0,-106v9,-118,-175,-149,-236,-67v-13,18,-21,40,-21,67v1,13,-9,22,-21,22v-12,0,-21,-9,-21,-22xm149,-475v18,0,34,16,34,34v0,18,-16,34,-34,34v-18,0,-34,-16,-34,-34v0,-18,16,-34,34,-34xm237,-475v18,0,34,16,34,34v0,18,-16,34,-34,34v-18,0,-34,-16,-34,-34v0,-18,16,-34,34,-34"},"\u00e5":{"d":"17,-237v0,-118,126,-185,239,-144v55,20,102,68,102,144r0,216v1,13,-9,22,-21,22v-19,0,-23,-19,-21,-42v-26,24,-65,41,-111,41v-81,0,-142,-46,-142,-127v0,-68,47,-119,123,-119v51,0,90,27,111,62v7,23,-25,36,-38,17v-14,-21,-40,-37,-72,-38v-50,0,-83,32,-83,78v0,56,46,86,103,86v59,0,109,-31,109,-90r0,-106v9,-118,-175,-149,-236,-67v-13,18,-21,40,-21,67v1,13,-9,22,-21,22v-12,0,-21,-9,-21,-22"},"\u00e6":{"d":"704,-314v16,25,-5,54,-33,54r-202,0v-13,1,-22,-9,-22,-21v0,-11,9,-21,22,-20r192,0v-30,-27,-68,-48,-120,-49v-83,-2,-165,68,-165,154v0,126,166,201,268,120v30,-24,50,-53,58,-90v2,-12,10,-18,21,-18v13,0,23,10,20,26v-15,88,-103,158,-202,158v-77,-1,-140,-39,-173,-89v-18,52,-78,88,-143,88v-85,0,-144,-48,-144,-135v0,-67,53,-111,124,-111v54,0,88,26,110,62v8,23,-25,36,-38,17v-16,-23,-42,-39,-79,-38v-56,3,-95,61,-67,115v15,29,51,49,94,49v68,0,110,-37,110,-116r0,-80v8,-117,-174,-149,-236,-67v-14,18,-22,40,-22,67v1,13,-9,22,-21,22v-12,0,-21,-9,-21,-22v0,-95,83,-156,171,-156v81,0,133,38,159,96v42,-71,156,-122,256,-78v31,14,64,33,83,62","w":779},"\u00e7":{"d":"186,66v-11,0,-17,8,-28,9v-14,1,-29,-17,-20,-30r22,-34v12,-15,14,-42,37,-45v15,-2,27,18,18,33r-17,27v36,5,65,39,60,81v-5,45,-61,79,-107,53v-15,-8,-38,-30,-19,-49v10,-9,25,-5,30,4v14,22,55,12,55,-19v0,-17,-15,-30,-31,-30xm231,-392v83,-2,172,72,169,157v-4,92,-56,150,-147,150v-73,0,-122,-43,-122,-114v0,-37,15,-67,43,-79v22,-10,38,23,19,37v-13,10,-21,23,-21,43v0,46,36,75,88,72v60,-4,97,-44,98,-109v1,-64,-62,-116,-127,-115v-104,1,-167,54,-170,154v-3,111,125,186,239,141v20,-7,38,-19,53,-33v21,-12,43,17,23,34v-37,32,-87,53,-151,54v-105,2,-209,-88,-206,-196v3,-95,54,-154,126,-182v25,-10,54,-14,86,-14","w":419},"\u00e8":{"d":"390,-314v16,25,-5,54,-33,54r-202,0v-13,1,-22,-9,-22,-21v0,-11,9,-21,22,-20r191,0v-30,-27,-67,-48,-119,-49v-83,-2,-165,68,-165,154v0,126,166,201,268,120v30,-24,50,-53,58,-90v2,-12,10,-18,21,-18v13,0,23,10,20,26v-15,88,-103,158,-202,158v-106,0,-207,-87,-207,-196v0,-135,151,-239,287,-180v31,14,64,33,83,62xm105,-458v-24,-3,-20,-46,3,-41r180,42v25,4,20,48,-6,42","w":450},"\u00e9":{"d":"390,-314v16,25,-5,54,-33,54r-202,0v-13,1,-22,-9,-22,-21v0,-11,9,-21,22,-20r191,0v-30,-27,-67,-48,-119,-49v-83,-2,-165,68,-165,154v0,126,166,201,268,120v30,-24,50,-53,58,-90v2,-12,10,-18,21,-18v13,0,23,10,20,26v-15,88,-103,158,-202,158v-106,0,-207,-87,-207,-196v0,-135,151,-239,287,-180v31,14,64,33,83,62xm367,-492v19,-6,34,16,23,32v-3,4,-7,7,-13,8r-180,43v-23,0,-27,-36,-3,-42","w":450},"\u00ea":{"d":"390,-314v16,25,-5,54,-33,54r-202,0v-13,1,-22,-9,-22,-21v0,-11,9,-21,22,-20r191,0v-30,-27,-67,-48,-119,-49v-83,-2,-165,68,-165,154v0,126,166,201,268,120v30,-24,50,-53,58,-90v2,-12,10,-18,21,-18v13,0,23,10,20,26v-15,88,-103,158,-202,158v-106,0,-207,-87,-207,-196v0,-135,151,-239,287,-180v31,14,64,33,83,62xm157,-407v-19,11,-39,-10,-28,-29v2,-3,5,-6,9,-8r86,-44v5,1,12,0,15,2r82,42v22,7,13,43,-11,40v-28,-12,-53,-27,-80,-40","w":450},"\u00eb":{"d":"390,-314v16,25,-5,54,-33,54r-202,0v-13,1,-22,-9,-22,-21v0,-11,9,-21,22,-20r191,0v-30,-27,-67,-48,-119,-49v-83,-2,-165,68,-165,154v0,126,166,201,268,120v30,-24,50,-53,58,-90v2,-12,10,-18,21,-18v13,0,23,10,20,26v-15,88,-103,158,-202,158v-106,0,-207,-87,-207,-196v0,-135,151,-239,287,-180v31,14,64,33,83,62xm179,-475v18,0,34,16,34,34v0,18,-16,34,-34,34v-18,0,-34,-16,-34,-34v0,-18,16,-34,34,-34xm267,-475v18,0,34,16,34,34v0,18,-16,34,-34,34v-18,0,-34,-16,-34,-34v0,-18,16,-34,34,-34","w":450},"\u00ec":{"d":"65,-60v-2,21,23,20,24,38v1,12,-9,23,-20,22v-29,-3,-46,-30,-46,-60r0,-311v-1,-13,9,-23,21,-23v12,0,22,10,21,23r0,311xm-126,-467v-25,-5,-18,-47,8,-41r175,42v24,3,20,48,-5,42","w":93},"\u00ed":{"d":"65,-60v-2,21,23,20,24,38v1,12,-9,23,-20,22v-29,-3,-46,-30,-46,-60r0,-311v-1,-13,9,-23,21,-23v12,0,22,10,21,23r0,311xm211,-499v19,-6,34,17,23,33v-3,4,-7,6,-13,7r-175,43v-28,4,-34,-36,-8,-42","w":93},"\u00ee":{"d":"65,-60v-2,21,23,20,24,38v1,12,-9,23,-20,22v-29,-3,-46,-30,-46,-60r0,-311v-1,-13,9,-23,21,-23v12,0,22,10,21,23r0,311xm-31,-391v-18,11,-38,-11,-27,-29v2,-3,5,-6,9,-8r85,-44v5,1,12,0,15,2r82,42v22,7,13,43,-11,40v-28,-12,-53,-27,-80,-40","w":93},"\u00ef":{"d":"65,-60v-2,21,23,20,24,38v1,12,-9,23,-20,22v-29,-3,-46,-30,-46,-60r0,-311v-1,-13,9,-23,21,-23v12,0,22,10,21,23r0,311xm2,-473v18,-1,34,16,34,34v0,18,-16,35,-34,34v-17,0,-33,-16,-33,-34v0,-18,16,-34,33,-34xm90,-473v18,0,34,16,34,34v0,18,-16,34,-34,34v-18,0,-34,-16,-34,-34v0,-18,16,-34,34,-34","w":93},"\u00f0":{"d":"356,-644v37,33,59,80,60,143r0,305v3,105,-93,196,-198,196v-105,0,-198,-90,-198,-196v0,-105,93,-198,198,-196v68,1,123,35,156,76r0,-185v-1,-49,-17,-89,-47,-114r-104,103v-21,13,-43,-14,-25,-32r92,-93v-26,-14,-68,-18,-104,-11v-12,2,-20,-10,-20,-21v0,-26,39,-24,67,-24v33,0,64,11,88,25r23,-22v13,-10,19,-28,39,-30v18,-1,26,23,13,36xm218,-42v83,0,156,-71,156,-154v0,-84,-73,-154,-156,-154v-83,0,-157,70,-157,154v0,83,74,154,157,154","w":436},"\u00f1":{"d":"85,-334v38,-49,131,-73,204,-43v57,24,105,78,105,160r0,196v1,13,-9,22,-21,22v-12,0,-22,-9,-21,-22r0,-196v2,-102,-92,-157,-189,-122v-42,15,-78,57,-78,116r0,202v1,12,-10,21,-21,21v-11,0,-22,-9,-21,-21r1,-311v1,-21,-24,-19,-25,-38v-1,-12,9,-25,20,-23v27,4,43,30,46,59xm265,-456v26,10,32,-16,51,-18v10,0,23,10,21,20v-4,27,-31,41,-61,41v-47,0,-62,-40,-107,-40v-15,0,-27,7,-30,20v-6,21,-43,18,-41,-5v5,-46,60,-70,108,-50v21,8,38,23,59,32","w":412},"\u00f2":{"d":"222,-392v105,0,202,89,202,196v0,107,-96,196,-202,196v-105,0,-202,-90,-202,-196v0,-108,96,-196,202,-196xm222,-42v84,0,161,-68,161,-154v0,-85,-77,-154,-161,-154v-83,0,-160,70,-160,154v0,84,77,154,160,154xm78,-452v-24,-3,-20,-46,3,-41r180,42v24,3,20,48,-5,42","w":444},"\u00f3":{"d":"222,-392v105,0,202,89,202,196v0,107,-96,196,-202,196v-105,0,-202,-90,-202,-196v0,-108,96,-196,202,-196xm222,-42v84,0,161,-68,161,-154v0,-85,-77,-154,-161,-154v-83,0,-160,70,-160,154v0,84,77,154,160,154xm359,-488v19,-6,34,16,23,32v-3,4,-7,7,-13,8r-180,43v-23,0,-27,-36,-3,-42","w":444},"\u00f4":{"d":"222,-392v105,0,202,89,202,196v0,107,-96,196,-202,196v-105,0,-202,-90,-202,-196v0,-108,96,-196,202,-196xm222,-42v84,0,161,-68,161,-154v0,-85,-77,-154,-161,-154v-83,0,-160,70,-160,154v0,84,77,154,160,154xm148,-397v-19,11,-39,-10,-28,-29v2,-3,5,-6,9,-8r87,-44r14,2r82,42v22,7,13,43,-10,40v-29,-11,-54,-27,-81,-40","w":444},"\u00f5":{"d":"222,-392v105,0,202,89,202,196v0,107,-96,196,-202,196v-105,0,-202,-90,-202,-196v0,-108,96,-196,202,-196xm222,-42v84,0,161,-68,161,-154v0,-85,-77,-154,-161,-154v-83,0,-160,70,-160,154v0,84,77,154,160,154xm276,-447v26,10,32,-16,51,-18v10,0,23,10,21,20v-4,27,-31,41,-61,41v-23,0,-39,-11,-55,-19v-18,-16,-71,-37,-82,-1v-7,21,-43,18,-41,-5v5,-46,59,-69,107,-49v21,8,39,22,60,31","w":444},"\u00f6":{"d":"222,-392v105,0,202,89,202,196v0,107,-96,196,-202,196v-105,0,-202,-90,-202,-196v0,-108,96,-196,202,-196xm222,-42v84,0,161,-68,161,-154v0,-85,-77,-154,-161,-154v-83,0,-160,70,-160,154v0,84,77,154,160,154xm173,-475v18,0,34,16,34,34v0,18,-16,34,-34,34v-18,0,-34,-16,-34,-34v0,-18,16,-34,34,-34xm261,-475v18,0,34,16,34,34v0,18,-16,34,-34,34v-18,0,-34,-16,-34,-34v0,-18,16,-34,34,-34","w":444},"\u00f8":{"d":"377,-321v27,30,46,72,47,125v2,107,-96,198,-202,196v-50,-1,-93,-19,-124,-42r-43,42v-21,12,-43,-15,-25,-33r37,-37v-26,-31,-46,-73,-47,-126v-3,-108,96,-199,202,-196v52,0,94,18,125,42r42,-42v22,-13,45,15,26,33xm222,-42v102,2,193,-97,152,-206v-6,-16,-15,-31,-26,-44r-221,220v24,17,57,30,95,30xm222,-350v-100,-2,-191,98,-150,206v6,16,14,31,25,44r220,-220v-24,-17,-57,-30,-95,-30","w":444},"\u00f9":{"d":"318,-394v12,0,22,10,21,23r0,317v-1,18,22,16,20,35v-1,10,-9,20,-20,19v-23,-3,-37,-22,-41,-44v-26,26,-63,43,-110,43v-80,0,-150,-58,-150,-149r0,-188v1,-18,-21,-15,-21,-32v0,-12,9,-25,20,-23v25,4,43,27,43,55r0,188v-4,66,50,108,108,108v58,0,109,-42,109,-108r0,-221v-1,-13,9,-23,21,-23xm72,-437v-24,-3,-20,-46,3,-41r180,42v24,3,20,48,-5,42","w":377},"\u00fa":{"d":"318,-394v12,0,22,10,21,23r0,317v-1,18,22,16,20,35v-1,10,-9,20,-20,19v-23,-3,-37,-22,-41,-44v-26,26,-63,43,-110,43v-80,0,-150,-58,-150,-149r0,-188v1,-18,-21,-15,-21,-32v0,-12,9,-25,20,-23v25,4,43,27,43,55r0,188v-4,66,50,108,108,108v58,0,109,-42,109,-108r0,-221v-1,-13,9,-23,21,-23xm289,-480v19,-6,34,16,23,32v-3,4,-7,7,-13,8r-180,43v-23,0,-27,-36,-3,-42","w":377},"\u00fb":{"d":"318,-394v12,0,22,10,21,23r0,317v-1,18,22,16,20,35v-1,10,-9,20,-20,19v-23,-3,-37,-22,-41,-44v-26,26,-63,43,-110,43v-80,0,-150,-58,-150,-149r0,-188v1,-18,-21,-15,-21,-32v0,-12,9,-25,20,-23v25,4,43,27,43,55r0,188v-4,66,50,108,108,108v58,0,109,-42,109,-108r0,-221v-1,-13,9,-23,21,-23xm112,-397v-19,11,-39,-10,-28,-29v2,-3,5,-6,9,-8r87,-44r14,2r82,42v22,7,13,43,-10,40v-29,-11,-54,-27,-81,-40","w":377},"\u00fc":{"d":"318,-394v12,0,22,10,21,23r0,317v-1,18,22,16,20,35v-1,10,-9,20,-20,19v-23,-3,-37,-22,-41,-44v-26,26,-63,43,-110,43v-80,0,-150,-58,-150,-149r0,-188v1,-18,-21,-15,-21,-32v0,-12,9,-25,20,-23v25,4,43,27,43,55r0,188v-4,66,50,108,108,108v58,0,109,-42,109,-108r0,-221v-1,-13,9,-23,21,-23xm140,-463v18,0,34,16,34,34v0,18,-16,34,-34,34v-18,0,-34,-16,-34,-34v0,-18,16,-34,34,-34xm228,-463v18,0,34,16,34,34v0,18,-16,34,-34,34v-18,0,-34,-16,-34,-34v0,-18,16,-34,34,-34","w":377},"\u00fe":{"d":"44,-607v2,-22,-24,-19,-24,-41v0,-11,9,-22,20,-20v29,5,46,28,46,61r0,290v38,-56,127,-89,208,-56v81,33,138,145,99,255v-29,81,-118,149,-227,112v-17,-6,-42,-12,-44,-35v-1,-15,19,-27,33,-17v31,22,82,28,123,10v63,-28,106,-116,76,-202v-23,-64,-99,-121,-182,-85v-50,21,-86,73,-86,143r0,419v1,12,-10,22,-21,22v-12,0,-22,-10,-21,-23r0,-833","w":426},"\u00ff":{"d":"139,108v87,20,164,-23,158,-116r-1,-35v-26,25,-63,42,-109,42v-80,0,-150,-58,-150,-149r0,-188v1,-18,-21,-15,-21,-32v0,-12,9,-25,20,-23v25,4,43,27,43,55r0,188v-4,66,50,108,108,108v58,0,109,-42,109,-108r0,-221v-1,-13,9,-23,21,-23v12,0,22,10,21,23r0,374v-5,93,-62,153,-163,153v-24,0,-55,-2,-56,-28v0,-10,9,-22,20,-20xm140,-460v18,0,34,16,34,34v0,18,-16,34,-34,34v-18,0,-34,-16,-34,-34v0,-18,16,-34,34,-34xm228,-460v18,0,34,16,34,34v0,18,-16,34,-34,34v-18,0,-34,-16,-34,-34v0,-18,16,-34,34,-34","w":354},"\u0152":{"d":"868,-21v0,12,-10,22,-23,21r-267,0v-30,1,-57,-26,-59,-54v-71,53,-198,73,-295,28v-113,-53,-196,-163,-196,-324v0,-158,83,-271,196,-322v97,-44,224,-25,295,28v2,-32,25,-60,59,-59r179,0v13,-1,22,10,22,22v0,11,-9,21,-22,20r-179,0v-9,0,-17,7,-17,16r0,328r236,0v13,-1,23,9,23,21v-1,32,-51,21,-82,21r-177,0r0,217v0,9,8,16,17,16r267,0v13,-1,23,9,23,21xm242,-64v96,44,216,17,277,-43r0,-485v-62,-59,-188,-87,-283,-40v-97,48,-166,143,-166,283v0,139,72,240,172,285","w":891},"\u0153":{"d":"676,-314v16,25,-4,54,-32,54r-202,0v-13,1,-22,-9,-22,-21v0,-11,9,-21,22,-20r191,0v-31,-26,-64,-49,-120,-49v-49,1,-91,20,-118,47v42,52,43,162,0,214v38,39,114,60,180,35v49,-19,90,-57,100,-112v4,-24,45,-23,41,2v-11,78,-66,129,-134,153v-81,27,-168,-1,-214,-46v-45,49,-138,73,-218,43v-88,-33,-158,-144,-111,-257v29,-70,95,-124,196,-121v55,1,102,26,133,57v47,-49,147,-77,226,-41v31,14,63,33,82,62xm341,-303v-37,-39,-111,-60,-177,-36v-69,25,-120,111,-86,201v27,70,120,120,210,84v20,-8,38,-19,53,-35v-20,-29,-33,-64,-34,-108v0,-43,15,-78,34,-106xm368,-267v-25,35,-24,108,0,143v22,-37,24,-106,0,-143","w":729},"\u0178":{"d":"27,-672v-13,-18,9,-41,29,-29v3,2,5,5,7,9r194,354r195,-354v6,-19,41,-13,40,8r-4,12r-210,382r0,269v1,13,-9,22,-20,22v-12,0,-22,-9,-21,-22r0,-269xm206,-775v18,0,34,16,34,34v0,18,-16,34,-34,34v-18,0,-34,-16,-34,-34v0,-18,16,-34,34,-34xm294,-775v18,0,34,16,34,34v0,18,-16,34,-34,34v-18,0,-34,-16,-34,-34v0,-18,16,-34,34,-34","w":515},"\u02c6":{"d":"180,-753v26,10,32,-16,51,-18v10,0,23,10,21,20v-4,27,-31,41,-61,41v-23,0,-39,-11,-55,-19v-18,-16,-71,-37,-82,-1v-7,21,-43,18,-41,-5v5,-46,59,-69,107,-49v21,8,39,22,60,31","w":264},"\u02dc":{"d":"52,-709v-19,11,-39,-10,-28,-29v2,-3,5,-6,9,-8r87,-44r14,2r82,42v22,7,13,43,-10,40v-29,-11,-54,-27,-81,-40","w":264},"\u2013":{"d":"350,-361v0,12,-10,22,-23,21r-291,0v-13,1,-22,-9,-22,-21v0,-12,9,-22,22,-21r291,0v13,-1,23,9,23,21","w":370},"\u2014":{"d":"710,-361v0,12,-10,22,-23,21r-641,0v-13,1,-22,-9,-22,-21v0,-12,9,-22,22,-21r641,0v13,-1,23,9,23,21","w":721},"\u2018":{"d":"77,-536v-36,0,-69,-32,-68,-67v1,-70,23,-106,77,-127v24,-9,35,31,12,40v-11,4,-18,11,-27,18v46,-4,72,29,72,68v0,35,-25,68,-66,68","w":168},"\u2019":{"d":"87,-726v36,0,69,32,68,67v-1,71,-24,108,-82,127v-21,1,-28,-33,-7,-40v9,-6,20,-11,27,-18v-45,4,-72,-30,-72,-68v0,-37,25,-68,66,-68","w":168},"\u201a":{"d":"87,-136v36,0,69,32,68,67v-1,70,-23,104,-77,125v-24,9,-35,-31,-12,-39v9,-6,20,-9,27,-17v-45,4,-72,-30,-72,-68v0,-37,25,-68,66,-68","w":168},"\u201c":{"d":"77,-536v-36,0,-69,-32,-68,-67v1,-70,23,-106,77,-127v24,-9,35,31,12,40v-11,4,-18,11,-27,18v46,-4,72,29,72,68v0,35,-25,68,-66,68xm217,-536v-36,0,-69,-32,-68,-67v1,-70,23,-106,77,-127v24,-9,35,31,12,40v-11,4,-18,11,-27,18v46,-4,72,29,72,68v0,35,-25,68,-66,68","w":294},"\u201d":{"d":"87,-724v36,0,69,32,68,67v-1,71,-24,108,-82,127v-21,1,-28,-33,-7,-40v9,-6,20,-11,27,-18v-45,4,-72,-30,-72,-68v0,-37,25,-68,66,-68xm227,-724v36,0,69,32,68,67v-1,71,-24,108,-82,127v-21,1,-28,-33,-7,-40v9,-6,20,-11,27,-18v-45,4,-72,-30,-72,-68v0,-37,25,-68,66,-68","w":294},"\u201e":{"d":"87,-136v36,0,69,32,68,67v-1,70,-23,104,-77,125v-24,9,-35,-31,-12,-39v9,-6,20,-9,27,-17v-45,4,-72,-30,-72,-68v0,-37,25,-68,66,-68xm237,-136v36,0,69,32,68,67v-1,70,-23,104,-77,125v-24,9,-35,-31,-12,-39v9,-6,20,-9,27,-17v-45,4,-72,-30,-72,-68v0,-37,25,-68,66,-68","w":312},"\u2022":{"d":"296,-462v33,27,52,93,30,149v-23,58,-101,102,-178,72v-59,-23,-105,-102,-73,-179v24,-59,103,-102,179,-71v16,7,29,18,42,29","w":382},"\u2039":{"d":"166,-508v15,-15,45,3,34,24v-1,3,-4,5,-7,8r-131,114r131,114v18,11,4,46,-19,36v-2,-1,-5,-3,-8,-5r-149,-129v-10,-6,-8,-26,0,-32","w":223},"\u203a":{"d":"39,-476v-18,-13,-5,-46,19,-36v2,1,5,2,8,4r149,130v10,6,8,26,0,32r-153,132v-21,13,-44,-16,-23,-34r131,-114","w":223}}});
